26 30 3
-0.161881 -0.186491 -1.00043 -0.191008 -0.265349 -0.391369 -0.271022 -0.14558 0.205849 6.25636 -0.209542 -0.724547 -0.508138 -0.28956 -0.50643 -0.0936585 -0.299771 -1.31597 -0.224226 1.62409 -0.268036 1.4044 -0.505811 -1.258 -0.246211 -3.44575 -0.481651 -5.02817 -0.0925377 -0.137361 
0.115105 0.102218 -0.197753 0.12873 -0.112743 0.105603 -0.130098 0.192285 -0.259473 -0.192783 -0.127684 0.0893637 -0.123829 0.128425 0.195816 -0.180258 0.108564 0.0869987 0.138253 -0.197848 -0.097667 -0.147839 0.141065 -0.220646 -0.129841 0.0978833 0.143737 0.101243 -0.145338 -0.190738 
0.101159 -0.200143 -0.156703 0.101687 -0.104571 0.100594 -0.121911 0.166472 -0.364897 -0.210308 0.129294 0.149027 -0.121825 -0.0965893 -0.0890557 -0.102177 -0.0945476 -0.139512 -0.115076 -0.189586 0.129691 -0.196388 0.178467 -0.0923957 0.0912281 0.101745 -0.0953806 -0.0949229 0.107135 -0.201483 
-0.192566 -0.0940889 0.134282 0.134911 -0.185703 0.0865431 0.103239 -0.115819 -0.186676 -0.196272 -0.201456 -0.167826 -0.186008 0.0954273 -0.136883 0.136896 -0.169978 0.167225 -0.126548 -0.0736154 -0.1875 0.143285 0.0977041 -0.143162 -0.194241 -0.129391 -0.135197 -0.0795222 -0.203705 -0.195577 
0.163041 0.172503 0.110285 -0.183772 0.138315 0.150988 0.117089 -0.117736 -0.0418014 -0.193729 -0.151815 0.170183 -0.106959 0.106629 -0.164669 0.192688 0.128329 -0.185075 -0.125784 -0.147707 -0.153932 -0.15063 -0.109027 -0.143911 -0.123066 0.127537 0.117686 0.171549 -0.197118 -0.162966 
-0.137984 -0.0982124 0.0907876 -0.180632 -0.184801 0.104521 0.127751 0.187076 -0.292641 -0.223971 0.104779 -0.0857372 -0.147709 0.164724 -0.162694 -0.206809 -0.197093 0.101572 0.139539 -0.277769 0.193814 -0.214642 0.0976531 0.0982392 -0.0957267 0.11938 -0.168177 -0.150118 0.154774 -0.204061 
-0.133356 -0.0998359 -0.11496 -0.140123 0.0882979 -0.181482 -0.11902 -0.184214 -0.244997 -0.0910054 0.163533 0.111782 0.10814 -0.105437 -0.135158 0.119675 -0.182531 0.141835 -0.153508 0.0348049 -0.113236 0.09545 -0.201678 0.0960316 -0.108243 0.170464 -0.203974 -0.200074 -0.163983 0.157303 
0.108006 -0.127438 0.127289 -0.122514 -0.0882398 0.135212 0.200456 -0.142079 -0.391905 -0.147844 -0.111078 0.184471 0.189136 -0.186973 -0.138608 0.157957 -0.1054 -0.153368 -0.0980106 -0.262808 0.2026 0.137424 0.110944 -0.126297 0.0999467 0.118862 0.125658 0.196695 -0.0970745 0.123348 
-0.0939837 -0.305945 0.0825732 -0.423668 -0.176699 -1.41636 -0.231302 -0.132952 0.747023 1.02078 -0.108258 -1.51492 -0.149642 -0.177017 -0.0261844 -0.101938 -0.691379 -0.282831 -0.178049 0.19586 0.199154 7.27184 -0.240741 0.0101408 -0.601853 0.330708 0.100031 2.32134 -0.139646 -0.158978 
-0.147436 0.150149 0.144114 0.10583 0.1889 0.111537 -0.183959 0.101717 -0.298483 -0.0993915 -0.136206 -0.165378 -0.108999 0.0995439 0.178841 0.0968015 -0.116054 0.132167 0.202707 0.0595509 -0.149164 -0.17776 0.105574 -0.180031 0.10719 -0.148548 -0.110273 -0.150858 0.182148 -0.124199 
-0.191907 -0.103739 -0.183704 -0.112243 -0.145155 -0.218924 -0.175214 -0.0928714 -0.00760153 -0.0939028 0.170842 -0.17293 0.176138 0.19963 0.11973 -0.120806 -0.172846 0.109383 -0.147589 -0.0316947 -0.130022 0.17377 -0.126886 -0.14388 -0.175813 0.159964 -0.108248 -0.163928 0.101098 0.165226 
-0.193407 0.181425 -0.133311 -0.189059 -0.0923133 -0.211195 0.127427 -0.145335 -0.270484 -0.217194 0.159588 0.143942 -0.202914 0.18941 0.12043 0.18925 0.162352 0.143513 -0.0966229 0.101262 -0.142987 0.121688 -0.169503 0.173513 -0.125137 0.190888 0.163493 -0.130944 0.108253 0.145621 
-0.0876293 0.184053 -0.0959337 -0.123859 0.0901921 0.138214 -0.191311 -0.20345 0.111066 -0.17973 0.141716 0.110348 0.120286 -0.135576 0.157206 0.161621 -0.133434 0.110326 0.186218 0.202248 -0.20254 0.14114 -0.144386 0.196237 -0.106101 0.169511 -0.103842 0.178751 -0.133628 0.154138 
0.0980855 -0.156872 -0.286709 0.195402 -0.121601 -0.274507 -0.10785 -0.172151 0.0902878 4.39446 -0.171641 -0.672402 -0.441041 -0.407236 -0.298264 -0.135259 -0.320562 -1.07362 -0.35805 0.706307 -0.150515 1.19197 -0.492592 -0.877495 -0.218564 -2.22319 -0.400558 -3.3598 -0.237592 0.0861438 
0.124164 -0.102684 0.135615 0.109573 -0.097622 0.104172 0.174373 0.147586 -0.312085 0.139367 -0.172513 -0.184674 -0.157565 0.121081 -0.109176 -0.12574 0.0923956 -0.171307 -0.123045 0.0857743 0.189937 -0.217587 -0.13783 0.0785956 0.170503 -0.172613 -0.0893765 -0.0958189 -0.147512 -0.106006 
-0.156035 -0.091139 -0.0983782 0.11956 0.180573 -0.168195 0.12575 0.0945309 -0.0562639 0.0982655 -0.177607 0.178998 0.087247 -0.190398 -0.116641 -0.107728 -0.192151 0.188508 -0.172963 0.0345669 0.140492 -0.0967702 -0.142502 0.0758332 0.095328 0.134258 0.157935 0.135514 -0.169327 0.178924 
-0.227191 -0.0866969 -0.178082 -0.180246 -0.205941 -0.730133 -0.078408 -0.13685 0.628518 0.927776 -0.26017 -0.199601 -0.17901 -0.236878 -0.350941 -0.184527 -0.178216 -0.375842 -0.418634 -0.270851 -0.226792 5.96786 -0.221885 -0.244796 -0.364063 -0.452482 -0.157991 1.0508 -0.213788 -0.384861 
-0.1349 0.156389 0.127859 -0.128604 0.0980815 -0.165337 0.0887222 -0.148903 -0.220619 -0.123412 0.135371 0.134138 -0.154107 -0.158025 -0.164744 0.153769 0.111045 -0.120073 -0.179401 0.070191 -0.120417 -0.110557 -0.15211 0.178418 0.176118 0.188407 -0.128934 -0.148132 -0.0925003 0.192632 
-0.105142 -0.433771 -0.401967 -0.206736 -0.127129 -0.516087 -0.259939 -0.17865 0.773757 0.656606 -0.169715 -0.143903 -0.118399 -0.492624 -0.366389 -0.434451 -0.331647 -0.373711 -0.158919 -0.606176 -0.12601 6.90262 -0.304688 -0.192777 -0.603166 -0.310012 -0.180524 1.21614 -0.40879 -0.259778 
-0.110456 -0.178729 -0.245219 -0.294963 -0.0722819 0.22575 -0.304754 -0.240599 0.09891 0.901239 -0.213277 -1.03769 -0.172155 -0.0933623 0.0965505 -0.103864 -0.337323 -0.443148 -0.234788 -0.705563 -0.175224 0.424877 -0.230143 -0.144963 -0.439397 -0.453056 -0.209877 0.410359 -0.172474 -0.231811 
0.102223 -0.129367 0.16019 0.191893 -0.143358 0.118488 0.103733 0.140873 -0.185744 -0.153288 0.167674 -0.134927 0.0899927 -0.146493 0.0965019 -0.185006 -0.0936739 -0.136224 0.113843 -0.212408 -0.143852 0.127804 0.142302 0.105499 0.136525 0.147113 -0.0922585 -0.0861855 0.0995127 0.191943 
0.138644 0.0973055 -0.158822 -0.164448 -0.1623 -0.182809 -0.127333 -0.142971 -0.041641 0.128688 -0.174946 -0.1417 -0.193369 0.12565 0.120301 0.166586 0.183964 -0.100028 0.170142 -0.24945 -0.132117 -0.140709 0.178037 -0.14937 -0.166621 0.18279 0.171188 0.111519 0.109275 -0.174496 
0.153983 0.191947 0.0770039 -0.18449 0.157429 -0.169709 -0.178748 -0.201169 -0.352654 -0.251663 -0.157069 -0.123291 -0.0981389 0.198471 0.115328 -0.137615 0.105361 0.202941 0.0972581 0.0465015 -0.182147 -0.203478 -0.104145 0.12138 0.175022 0.201888 -0.136527 0.144728 -0.162286 -0.146288 
-0.320463 -0.460991 0.154 -0.118552 0.0940688 -0.80515 -0.251363 -0.282808 0.176684 0.287137 -0.155664 -0.569384 -0.184668 0.173806 0.189394 -0.19308 -0.28248 -0.207436 0.210244 0.0410955 -0.0792029 4.83409 -0.23266 -0.244513 -0.240917 0.465761 -0.115186 1.66654 -0.0918508 -0.358601 
-0.102609 0.202418 -0.160082 -0.176594 -0.177438 -0.243723 -0.143102 0.110041 -0.0724512 -0.120781 0.193889 -0.115016 -0.102466 -0.199941 -0.124895 -0.161236 -0.097846 -0.12885 -0.196599 -0.237649 -0.161336 -0.20634 -0.087934 -0.130019 0.0940394 -0.162612 -0.141777 -0.08112 -0.158095 -0.155274 
-0.135244 0.104183 0.132131 -0.198565 -0.106714 -0.202989 -0.173213 0.0963205 -0.234052 -0.175594 -0.126746 0.117247 -0.202774 0.169895 0.139941 -0.123718 0.10861 -0.162986 -0.104825 -0.144665 -0.0893979 -0.156922 0.193244 0.17563 0.182665 0.0911768 -0.0979239 0.115296 0.139212 -0.102519 
0.185803 -0.124797 0.115362 
-0.290522 -0.116606 -0.168455 
0.65313 -0.174645 -0.279562 
0.12514 0.315753 -0.100062 
-0.0999556 0.177157 -0.0757158 
1.92764 -1.23243 1.34512 
-0.124823 0.117469 0.187937 
0.2514 0.222407 -0.148984 
0.371854 3.64388 -0.455799 
7.50638 4.93891 1.07668 
-0.191188 -0.150603 0.185556 
0.407205 2.99294 -0.308213 
-0.159062 0.135665 0.0826124 
-0.108482 0.125702 0.162291 
-0.383539 -0.343929 -0.207376 
0.127275 0.0937229 -0.126341 
0.289665 0.110705 -0.25558 
-0.18034 0.232828 -0.161755 
-0.226746 -0.274225 -0.306961 
1.42968 0.955287 -0.479678 
-0.258317 -0.323015 -0.141088 
4.72863 3.17354 1.19759 
0.224886 -0.116461 -0.121906 
-0.314091 -0.797853 -0.0113189 
0.135286 -0.274374 -0.1486 
6.85417 -0.415965 0.129411 
0.174813 0.176861 -0.181109 
2.50132 -0.899649 0.942981 
3.8547 0.351743 -0.218317 
-0.101212 -0.118998 -0.0646152 
-0.00618562 0.0384496 0.0583804 -0.0600942 -0.0631068 0.0155306 0.0728664 -0.0729676 0.0685074 0.00435349 -0.0711684 0.027393 0.0768616 0.0201964 -0.0424908 -0.0610028 0.0508661 -0.0423512 -0.00924833 0.0273684 0.0401477 0.0955576 -0.0449679 0.0563762 0.0649494 0.0425452 -0.0648003 0.0402241 0.0495691 0.0669611 
0.083896 -0.0808448 -0.019625 